  0.431190182070528E+000 -0.674622667625869E+003  0.189866519666168E-001  0.746737166806332E+001 -0.891389584610265E+002  0.200166313342118E+001 -0.465094717118063E+000  0.244907350157104E+001  0.496832085632414E+000  0.749249749411089E+002  0.843685384127803E+001  0.169941994322567E+002
  0.431190182070528E+000 -0.674567867584510E+003  0.189198560065393E-001  0.746736757672075E+001 -0.407879087152470E+002  0.481271352679641E+000  0.233088451550657E+000  0.247671503143365E+001  0.492045610220356E+000  0.748900001542345E+002  0.782138529845941E+001  0.168645892605612E+002
  0.431190182070528E+000 -0.678224554027208E+003  0.178413936471714E-001  0.746737292918127E+001 -0.126028614941912E+003  0.426968655198709E+001 -0.771982136356200E+000  0.242798056217041E+001  0.500595659234047E+000  0.749528351528010E+002  0.742844348421582E+001  0.169250887670390E+002
  0.431190182070528E+000 -0.677771029863113E+003  0.182713831290696E-001  0.746736583879993E+001 -0.103712641585238E+003  0.305962472274985E+001  0.227094077934566E+000  0.244076295222209E+001  0.492397446746358E+000  0.749932085710887E+002  0.744023597505849E+001  0.168221669292834E+002
  0.431190182070528E+000 -0.673580255947394E+003  0.180839019750800E-001  0.746737646924023E+001  0.388988498089702E+000 -0.319321137259180E+000 -0.625848372003816E+000  0.250021175136190E+001  0.505452335299894E+000  0.750288346787913E+002  0.756304804958675E+001  0.170457277311851E+002
  0.431190182070528E+000 -0.673564239055104E+003  0.202121400027166E-001  0.746737519838273E+001 -0.736596142299024E+002  0.114828171082365E+001 -0.618844410469364E+000  0.245792247654900E+001  0.506859224321097E+000  0.749729190724742E+002  0.709240595000654E+001  0.168707731590716E+002
  0.431190182070528E+000 -0.673502006466587E+003  0.191632934968524E-001  0.746737273700208E+001 -0.226482885474357E+003  0.144762591454164E+002 -0.876290693323540E+000  0.237058820720117E+001  0.503490516442925E+000  0.749782853530554E+002  0.761566620458470E+001  0.170760832563162E+002
  0.431190182070528E+000 -0.658622274492185E+003  0.155446639537459E-001  0.746738053899841E+001 -0.161587456577326E+003  0.686291709933812E+001 -0.155137005781216E+001  0.240765681307666E+001  0.506979594304947E+000  0.750335218444410E+002  0.840247661312563E+001  0.171538999114549E+002
  0.431190182070528E+000 -0.673340866321654E+003  0.192630506376329E-001  0.746737310165800E+001 -0.226653352900990E+003  0.144850240607566E+002 -0.910467515398750E+000  0.237049063161648E+001  0.504144353475919E+000  0.749767911320511E+002  0.762257340750981E+001  0.170805995330054E+002
  0.431190182070528E+000 -0.673208518754737E+003  0.179746731742443E-001  0.746736187852392E+001 -0.844931627922670E+002  0.220442278030703E+001  0.612051699015751E+000  0.245174617815786E+001  0.487318932744787E+000  0.749836670497584E+002  0.712183144687785E+001  0.167569399418084E+002
  0.431190182070528E+000 -0.673098161146461E+003  0.189238490633365E-001  0.746737670500060E+001 -0.724467331093160E+001 -0.299671436369294E+000 -0.592080808293758E+000  0.249585006140711E+001  0.505909651654555E+000  0.750095790167906E+002  0.770681895790164E+001  0.170602631775140E+002
  0.431190182070528E+000 -0.676948245034929E+003  0.181986734357216E-001  0.746736159202128E+001 -0.880892910353683E+002  0.236043874560755E+001  0.528318929575903E+000  0.244969554888295E+001  0.484860362078978E+000  0.749881323525876E+002  0.775895734450683E+001  0.167863146645862E+002
  0.431190182070528E+000 -0.669660838073943E+003  0.190631452727307E-001  0.746738103580450E+001 -0.809903269299899E+002  0.149518516681701E+001 -0.687325041864483E+000  0.245370799926077E+001  0.515138966993926E+000  0.749398196489998E+002  0.755980796099406E+001  0.172681884342988E+002
  0.431190182070528E+000 -0.672727624606784E+003  0.197875438393602E-001  0.746737373954985E+001 -0.105368582820273E+003  0.285582776192575E+001 -0.514711074956040E+000  0.243980982502002E+001  0.505862624474814E+000  0.749572235408543E+002  0.738187242915460E+001  0.168227160223020E+002
  0.431190182070528E+000 -0.672324152655953E+003  0.157304247448153E-001  0.746737349863203E+001 -0.115963336512700E+003  0.356541463830308E+001 -0.855265929122652E+000  0.243372549343488E+001  0.504324249255487E+000  0.750171396902789E+002  0.751707321109940E+001  0.168569897972597E+002
  0.431190182070528E+000 -0.676881414934690E+003  0.181521831908868E-001  0.746736544539894E+001 -0.636500692074251E+002  0.124877982243322E+001  0.463299758881817E+000  0.246365089809023E+001  0.488499638238005E+000  0.749692943366264E+002  0.766100170515641E+001  0.168336104087857E+002
  0.431190182070528E+000 -0.676462373485046E+003  0.185150852850455E-001  0.746736411208723E+001 -0.346063291520053E+002  0.438945096812517E+000  0.535847109872179E+000  0.248025635546237E+001  0.482840155696495E+000  0.749396779369839E+002  0.888205899307888E+001  0.169399200916937E+002
  0.431190182070528E+000 -0.670854326199751E+003  0.198673165323492E-001  0.746737147444681E+001 -0.115574501747657E+003  0.368126241116124E+001 -0.404943678833092E+000  0.243396000404282E+001  0.499688913800336E+000  0.750520987384333E+002  0.686940073758004E+001  0.167919942957785E+002
  0.431190182070528E+000 -0.672157897420338E+003  0.189549713043505E-001  0.746738637742287E+001 -0.191469577677688E+003  0.978988659720835E+001 -0.177717998904893E+001  0.239057767199337E+001  0.525666262652613E+000  0.750110700314582E+002  0.696279972855888E+001  0.171576187749802E+002
  0.431190182070528E+000 -0.668928038918344E+003  0.211742826154695E-001  0.746737614229430E+001 -0.858489709606749E+001 -0.195490133481030E+000 -0.491481335362664E+000  0.249508188801732E+001  0.512995771387954E+000  0.750878469005413E+002  0.665466061689395E+001  0.169664802669327E+002
  0.431190182070528E+000 -0.665969557083639E+003  0.204055927824640E-001  0.746737933586467E+001 -0.152532611041041E+003  0.623711535863117E+001 -0.960724972272374E+000  0.241282792104579E+001  0.511395094383472E+000  0.750163526061341E+002  0.834110748462905E+001  0.171564899325270E+002
  0.431190182070528E+000 -0.671285344560060E+003  0.189793258377170E-001  0.746738556904421E+001 -0.986983120943685E+002  0.221489990642237E+001 -0.134956511829557E+001  0.244357118527464E+001  0.522807113980945E+000  0.749461718759900E+002  0.715241534991784E+001  0.172643705349358E+002
  0.431190182070528E+000 -0.669005397757029E+003  0.175951031572108E-001  0.746736572655868E+001 -0.117583830221425E+002 -0.389673620537678E-001  0.163081155974737E+000  0.249331393527930E+001  0.480331471270470E+000  0.749060719769807E+002  0.974388435893056E+001  0.169254736450146E+002
  0.431190182070528E+000 -0.676077320211765E+003  0.190711094001880E-001  0.746736834812331E+001 -0.376079236089629E+002  0.351722377098099E+000  0.210940406342843E+000  0.247853206341564E+001  0.493517412478946E+000  0.748905547207755E+002  0.776150238673654E+001  0.168839083170242E+002
  0.431190182070528E+000 -0.669218697770308E+003  0.196434394389285E-001  0.746737548680193E+001 -0.117231460487119E+003  0.363909982829841E+001 -0.773403149854971E+000  0.243300557220645E+001  0.513311361365769E+000  0.751059856905292E+002  0.671012415497854E+001  0.168643089410306E+002
  0.431190182070528E+000 -0.663891334666366E+003  0.190436552714348E-001  0.746738762108627E+001 -0.159571180968700E+003  0.652719009518626E+001 -0.203244919065355E+001  0.240879131354467E+001  0.516855059771061E+000  0.749867324710490E+002  0.798234800152072E+001  0.172893866169898E+002
  0.431190182070528E+000 -0.672052698651129E+003  0.189100886534186E-001  0.746737769697395E+001 -0.247731818188887E+003  0.171927317477931E+002 -0.140896123110394E+001  0.235844409432426E+001  0.509056877950179E+000  0.749056900656876E+002  0.732931837437053E+001  0.171019369619312E+002
  0.431190182070528E+000 -0.663853282098557E+003  0.192991566450753E-001  0.746739940278449E+001 -0.531804155276662E+002 -0.258463045751682E+000 -0.240232088314497E+001  0.246957207459912E+001  0.543108050594455E+000  0.749202772305260E+002  0.623576271391651E+001  0.174615346387825E+002
  0.431190182070528E+000 -0.669253887882544E+003  0.172239048213284E-001  0.746737666548436E+001 -0.229400323834013E+003  0.146985534538316E+002 -0.991061242075261E+000  0.236893005078802E+001  0.504617620069136E+000  0.748753190533826E+002  0.711769987596930E+001  0.171619494291949E+002
  0.431190182070528E+000 -0.671440785400362E+003  0.180413428493039E-001  0.746737488524612E+001 -0.266109622848818E+003  0.199377177325387E+002 -0.146855392900102E+001  0.234795055601878E+001  0.503307125610251E+000  0.748912380124975E+002  0.740000312330760E+001  0.170861687504536E+002
  0.431190182070528E+000 -0.669327453617507E+003  0.182435558069936E-001  0.746737626573333E+001 -0.266504635347998E+003  0.199852052054266E+002 -0.153798378539534E+001  0.234772081280477E+001  0.505951103412478E+000  0.748811185509799E+002  0.728863499892900E+001  0.170879718203444E+002
  0.431190182070528E+000 -0.675985121493499E+003  0.178591522918529E-001  0.746737823461812E+001 -0.997093060734585E+002  0.245652753976572E+001 -0.866600995048998E+000  0.244301819148983E+001  0.512505147342258E+000  0.749005146696989E+002  0.723733758422035E+001  0.169212016275972E+002
  0.431190182070528E+000 -0.675068629606425E+003  0.194155281117674E-001  0.746737001084106E+001 -0.767399997589542E+002  0.148948252082914E+001 -0.312511700944924E+000  0.245616258648971E+001  0.491157419165906E+000  0.749299966802754E+002  0.902883327881448E+001  0.169953070624713E+002
  0.431190182070528E+000 -0.675958685219286E+003  0.194029635270029E-001  0.746737442210306E+001 -0.904365408008572E+002  0.208633648207399E+001 -0.298025534660610E+000  0.244833031973123E+001  0.503956388533571E+000  0.749865918214312E+002  0.734990263182614E+001  0.169419511072907E+002
  0.431190182070528E+000 -0.675774817472835E+003  0.189191394791612E-001  0.746737264597588E+001 -0.164645238453207E+003  0.755402133567623E+001 -0.511083972193092E+000  0.240592294511679E+001  0.503084795520194E+000  0.750087160816334E+002  0.790550478171070E+001  0.168781181454712E+002
  0.431190182070528E+000 -0.679360083876783E+003  0.176762656475780E-001  0.746737259707433E+001 -0.124276541802869E+003  0.412504224092913E+001 -0.630299213255853E+000  0.242899299981880E+001  0.502126257076314E+000  0.749487021576545E+002  0.699055698853468E+001  0.169135112447502E+002
