  0.184607492663275E-001 -0.661856296211860E+003  0.222862625567648E-001  0.746738070237859E+001 -0.147944195055828E+003  0.571704114323234E+001 -0.143551309177474E+001  0.241544835415202E+001  0.527668028969931E+000  0.749192819516130E+002  0.641662027334636E+001  0.170223726726155E+002
  0.184607492663275E-001 -0.670000687238555E+003  0.178510259533903E-001  0.746737579184032E+001 -0.287736475632120E+002 -0.135981006150246E+000 -0.517115441026021E+000  0.248357662156560E+001  0.503860608430700E+000  0.749027237514574E+002  0.900268582475247E+001  0.169262938624976E+002
  0.184607492663275E-001 -0.669997582831957E+003  0.199347173836018E-001  0.746738065717968E+001 -0.153120382050273E+003  0.635652912136186E+001 -0.589016878888856E+000  0.241250690283435E+001  0.524090663267410E+000  0.749284810477929E+002  0.619914583918888E+001  0.169284995322314E+002
  0.184607492663275E-001 -0.666338984525966E+003  0.189341947394286E-001  0.746735618223603E+001 -0.130249843318535E+003  0.522291307189971E+001  0.113706637889322E+001  0.242562226193236E+001  0.476015017766665E+000  0.749540060522593E+002  0.668668417894632E+001  0.166746964642765E+002
  0.184607492663275E-001 -0.669951220170739E+003  0.197757298545477E-001  0.746737349227035E+001 -0.227854934351908E+003  0.146834879006612E+002 -0.963410420577702E+000  0.236979507308552E+001  0.507544078210953E+000  0.750305058079687E+002  0.674690293038557E+001  0.171135545942350E+002
  0.184607492663275E-001 -0.675084834823559E+003  0.170729377030286E-001  0.746737654438627E+001 -0.225698897476902E+003  0.142256867577602E+002 -0.994256186610301E+000  0.237104257361443E+001  0.506630945005965E+000  0.748892991559290E+002  0.697206491592373E+001  0.171162320143182E+002
  0.184607492663275E-001 -0.672599907674882E+003  0.174010379167891E-001  0.746736366954041E+001 -0.222110225146124E+003  0.141720057439916E+002 -0.197458103002646E-001  0.237311452059968E+001  0.486266199961580E+000  0.749320068023575E+002  0.874976843711531E+001  0.168297075852551E+002
  0.184607492663275E-001 -0.675027628348282E+003  0.184900630328667E-001  0.746737161494400E+001 -0.179062843551081E+003  0.894701420043714E+001 -0.744609018238748E+000  0.239767799132924E+001  0.501141155793727E+000  0.749458844977407E+002  0.744790634690907E+001  0.169940161066529E+002
  0.184607492663275E-001 -0.674972722573500E+003  0.195323419780495E-001  0.746737718084613E+001 -0.240701234489196E+003  0.161974896435856E+002 -0.138347326681730E+001  0.236246271632729E+001  0.511350871001908E+000  0.749036655685058E+002  0.676831367776395E+001  0.170682107545399E+002
  0.184607492663275E-001 -0.674955523570548E+003  0.197303877549731E-001  0.746738987954069E+001 -0.721485900550472E+002  0.680974422249847E+000 -0.162550065557241E+001  0.245876000632895E+001  0.531316540844629E+000  0.749091204324589E+002  0.625627962283431E+001  0.171204212346701E+002
  0.184607492663275E-001 -0.674920142083838E+003  0.171105560931248E-001  0.746737700427391E+001 -0.230019428350265E+003  0.147832720170553E+002 -0.108971957391248E+001  0.236857121950996E+001  0.507015068817048E+000  0.748829731754272E+002  0.697049602156101E+001  0.171204218247957E+002
  0.184607492663275E-001 -0.674894618025640E+003  0.189100886534186E-001  0.746737769697395E+001 -0.247731818188887E+003  0.171927317477931E+002 -0.140896123110394E+001  0.235844409432426E+001  0.509056877950179E+000  0.749056900656876E+002  0.732931837437053E+001  0.171019369619312E+002
  0.184607492663275E-001 -0.672502757448453E+003  0.190631452727307E-001  0.746738103580450E+001 -0.809903269299899E+002  0.149518516681701E+001 -0.687325041864483E+000  0.245370799926077E+001  0.515138966993926E+000  0.749398196489998E+002  0.755980796099406E+001  0.172681884342988E+002
  0.184607492663275E-001 -0.656381515214394E+003  0.188123927260925E-001  0.746736914663061E+001 -0.168332478419272E+003  0.802834983139417E+001 -0.667649321856743E+000  0.240380082184509E+001  0.487941501185087E+000  0.750194856010502E+002  0.109481651308697E+002  0.171682363942611E+002
  0.184607492663275E-001 -0.669836271540176E+003  0.192853523087946E-001  0.746736685713991E+001 -0.136149489999307E+003  0.522545978899916E+001 -0.760238351818998E-001  0.242222588944981E+001  0.482874633741809E+000  0.748829656516506E+002  0.955577967123640E+001  0.171271141113141E+002
  0.184607492663275E-001 -0.672498545102235E+003  0.161286820870862E-001  0.746736861012866E+001 -0.216001801351876E+003  0.132325596357987E+002 -0.674781483457309E+000  0.237658043501385E+001  0.495857919507278E+000  0.749421701623105E+002  0.727529954147233E+001  0.167686271246989E+002
  0.184607492663275E-001 -0.666083912457262E+003  0.195914893803769E-001  0.746737063152898E+001 -0.140521806381268E+003  0.534183684667664E+001 -0.830282856834742E+000  0.241971585431427E+001  0.500207844587285E+000  0.750604051246066E+002  0.815975299210307E+001  0.167389840480555E+002
  0.184607492663275E-001 -0.660611676276897E+003  0.219290377584113E-001  0.746736261381206E+001 -0.239398689467017E+002  0.267102501293039E+000  0.302150118227928E+000  0.248634741403147E+001  0.477177357333704E+000  0.750350552099365E+002  0.944740367220330E+001  0.171718831215088E+002
  0.184607492663275E-001 -0.672488500002829E+003  0.177179885172753E-001  0.746737508895398E+001 -0.207252127460149E+003  0.119172397600449E+002 -0.151506352932893E+001  0.238155264988742E+001  0.500310063557773E+000  0.749853759382837E+002  0.804294528366856E+001  0.169457692382067E+002
  0.184607492663275E-001 -0.660274939023744E+003  0.165705924687383E-001  0.746737713953284E+001 -0.588622817222956E+002  0.655384220584097E+000 -0.597583237582853E+000  0.246637427408817E+001  0.506369986817801E+000  0.748969344691968E+002  0.885735259788249E+001  0.171452642314271E+002
  0.184607492663275E-001 -0.672421730175246E+003  0.182581660725917E-001  0.746737875896835E+001 -0.208210999125973E+003  0.119393438512215E+002 -0.135577579088499E+001  0.238102742503923E+001  0.511750335610924E+000  0.748630573828519E+002  0.654446334201989E+001  0.170317586879688E+002
  0.184607492663275E-001 -0.672391842708743E+003  0.164955641956698E-001  0.746737689915014E+001 -0.186515541345634E+003  0.956038559614501E+001 -0.109591833692264E+001  0.239342312186943E+001  0.508649740509134E+000  0.749361938856722E+002  0.612940254632273E+001  0.169938013686493E+002
  0.184607492663275E-001 -0.674879772814560E+003  0.180374765564271E-001  0.746737672603690E+001 -0.423195567493385E+002  0.264636271146060E+000 -0.327234259501665E+000  0.247582117760388E+001  0.509938418608631E+000  0.750053578555271E+002  0.790469840771843E+001  0.171787206952728E+002
  0.184607492663275E-001 -0.665771433547849E+003  0.199239826990661E-001  0.746735884341245E+001 -0.193212666817740E+003  0.109704223789786E+002  0.743108422438127E+000  0.238963954937094E+001  0.472173655909809E+000  0.750052865948825E+002  0.942652902112590E+001  0.168118867676385E+002
  0.184607492663275E-001 -0.659472522626813E+003  0.193090910841895E-001  0.746737717448990E+001 -0.223019681373967E+003  0.136527231554160E+002 -0.181320736314399E+001  0.237255558392869E+001  0.518877118221370E+000  0.750287934443702E+002  0.620228406517177E+001  0.168060803291712E+002
  0.184607492663275E-001 -0.659371994701208E+003  0.196509108136986E-001  0.746735502201220E+001 -0.285963660403529E+003  0.235821089195780E+002 -0.753387359385897E+000  0.233662462934978E+001  0.470916860717546E+000  0.749873500661108E+002  0.905778038381040E+001  0.165531442393535E+002
  0.184607492663275E-001 -0.672363583439999E+003  0.196157640579482E-001  0.746738839969646E+001 -0.181031242496048E+003  0.868178255170756E+001 -0.163043980638611E+001  0.239654077783937E+001  0.529702722900015E+000  0.750143215588996E+002  0.662062598800268E+001  0.171981232829288E+002
  0.184607492663275E-001 -0.674786990313032E+003  0.177908705005873E-001  0.746736289130918E+001 -0.123083862032362E+003  0.446254685029839E+001  0.592861562949565E+000  0.242970658948606E+001  0.490272069499479E+000  0.749575519169033E+002  0.762062534337525E+001  0.168176664457902E+002
  0.184607492663275E-001 -0.672350313320170E+003  0.204485766103286E-001  0.746737401319702E+001 -0.156462151795930E+003  0.680726461777124E+001 -0.347361663175434E+000  0.241060440451006E+001  0.499486539029792E+000  0.749755175656691E+002  0.871128932559123E+001  0.170661199718878E+002
  0.184607492663275E-001 -0.669807547643196E+003  0.211962104422963E-001  0.746737746896564E+001 -0.125864489438464E+003  0.410576369534829E+001 -0.113047966908675E+001  0.242806325736062E+001  0.509708314981757E+000  0.751239426248389E+002  0.762246413087755E+001  0.169852144128369E+002
  0.184607492663275E-001 -0.672311130733387E+003  0.199084236036491E-001  0.746737427832936E+001 -0.179304910010979E+003  0.897148858025878E+001 -0.443111976556111E+000  0.239755597372808E+001  0.500172213450629E+000  0.749274574723764E+002  0.864785873274091E+001  0.170360450185133E+002
  0.184607492663275E-001 -0.665538569734580E+003  0.196218045741567E-001  0.746737012771432E+001 -0.290134735032628E+002  0.779356180269133E-001 -0.361754647772727E+000  0.248342489677418E+001  0.500420258008176E+000  0.750299282995377E+002  0.817864834851051E+001  0.172080210193926E+002
  0.184607492663275E-001 -0.674633441830935E+003  0.197125692096639E-001  0.746736873320111E+001 -0.232877743731127E+002  0.560660078879209E-001  0.118354501835256E+000  0.248671799474018E+001  0.497849013151354E+000  0.750122139752769E+002  0.859568937835068E+001  0.169635875110610E+002
  0.184607492663275E-001 -0.654618064069879E+003  0.229499292806059E-001  0.746736322732234E+001 -0.141056565959481E+003  0.559145551533538E+001 -0.254718049206076E+000  0.241942926009785E+001  0.480356818395984E+000  0.749323664811943E+002  0.104414803658590E+002  0.170265835046457E+002
  0.184607492663275E-001 -0.672247823699390E+003  0.201053996174703E-001  0.746737104119156E+001 -0.186459663944776E+003  0.978206927520171E+001 -0.593328083049073E+000  0.239346297250631E+001  0.498106777264877E+000  0.750242063309485E+002  0.824538936065206E+001  0.171112758553491E+002
  0.184607492663275E-001 -0.672247466111598E+003  0.184031684675704E-001  0.746737170052703E+001 -0.254391894515567E+003  0.182786514817748E+002 -0.984170088431483E+000  0.235466032757429E+001  0.502874232112866E+000  0.749192308282763E+002  0.650408885843066E+001  0.168129138071866E+002
  0.184607492663275E-001 -0.665531083938111E+003  0.203303993571445E-001  0.746739930852540E+001 -0.882444965380215E+002  0.113253260505439E+001 -0.235120150344915E+001  0.244953866626596E+001  0.542255343383487E+000  0.749063575146754E+002  0.652525937401373E+001  0.174561389627653E+002
  0.184607492663275E-001 -0.665366835333100E+003  0.204012877428286E-001  0.746737543296831E+001 -0.652303487262327E+001 -0.114962291256461E+000 -0.263117321023628E+000  0.249627019111366E+001  0.509096035654701E+000  0.750320361998199E+002  0.737733104435101E+001  0.170246195578930E+002
  0.184607492663275E-001 -0.665275313625981E+003  0.207731042647516E-001  0.746735828422647E+001 -0.131398321471158E+003  0.523371271473798E+001  0.791730153959293E+000  0.242494178956291E+001  0.476637309823811E+000  0.749959543131544E+002  0.856617322796393E+001  0.166869657463527E+002
  0.184607492663275E-001 -0.674618251473353E+003  0.203958974977010E-001  0.746737286346870E+001 -0.155183151734451E+003  0.657633821090894E+001 -0.848098547737095E+000  0.241133298668183E+001  0.503713276466239E+000  0.749176100996037E+002  0.757623058525110E+001  0.169536615923944E+002
  0.184607492663275E-001 -0.672237601288771E+003  0.176298588742027E-001  0.746737609055389E+001 -0.267273981922542E+003  0.200881029876185E+002 -0.139779597009783E+001  0.234728473436657E+001  0.504423897470839E+000  0.749016112413706E+002  0.684264414251323E+001  0.170195427856245E+002
  0.184607492663275E-001 -0.672237419488241E+003  0.183345600260877E-001  0.746737234389843E+001 -0.479874642071620E+002  0.508606758642600E+000 -0.136131917492435E+000  0.247259154794296E+001  0.504345624571580E+000  0.749665355661166E+002  0.882247740687589E+001  0.169790708619465E+002
  0.184607492663275E-001 -0.674565419928422E+003  0.193475879204114E-001  0.746738229628088E+001 -0.150918518067182E+003  0.598944120801082E+001 -0.118116590300599E+001  0.241374838443841E+001  0.523778252780185E+000  0.750242883134458E+002  0.665968076450458E+001  0.169670025441691E+002
  0.184607492663275E-001 -0.662568868543673E+003  0.232100923468587E-001  0.746737302261934E+001 -0.821871218306895E+002  0.170231313069189E+001 -0.171145905294338E+000  0.245306268845314E+001  0.499619917685120E+000  0.749379574255029E+002  0.655705595082310E+001  0.171292491779839E+002
  0.184607492663275E-001 -0.672220296240927E+003  0.188213215707032E-001  0.746737732594697E+001 -0.256757974169671E+003  0.185321581283257E+002 -0.136886145249719E+001  0.235328473282906E+001  0.510848914663551E+000  0.748632854712404E+002  0.671246514113677E+001  0.170450193942308E+002
  0.184607492663275E-001 -0.664936573516805E+003  0.181174426018832E-001  0.746737620503235E+001 -0.102070376787301E+002 -0.510083337969718E+000 -0.101769937322479E+001  0.249417576668154E+001  0.503834376534196E+000  0.749662676869054E+002  0.901243590731136E+001  0.168813384813833E+002
  0.184607492663275E-001 -0.664892091287164E+003  0.186993845106924E-001  0.746737771552003E+001 -0.177671280756134E+003  0.878018835235264E+001 -0.115655552070564E+001  0.239843681770434E+001  0.513744035197718E+000  0.750740056712164E+002  0.653666931526806E+001  0.168843320194702E+002
  0.184607492663275E-001 -0.669665858581795E+003  0.183405720921094E-001  0.746737123181867E+001 -0.930595600666537E+002  0.237823731551453E+001 -0.657513603456437E-001  0.244684064178100E+001  0.502386331989804E+000  0.750244299803722E+002  0.796521084696959E+001  0.170420562438886E+002
  0.184607492663275E-001 -0.662832608264772E+003  0.200603512252212E-001  0.746738235105123E+001 -0.963540892394852E+002  0.221381508833690E+001 -0.126224359157607E+001  0.244489976782790E+001  0.513141114494572E+000  0.750429912546023E+002  0.706111737430824E+001  0.173501066049597E+002
  0.184607492663275E-001 -0.664653571714754E+003  0.216364565402112E-001  0.746738861736789E+001 -0.122243598792444E+003  0.360918238467627E+001 -0.146205537271783E+001  0.243012847987996E+001  0.531570291465414E+000  0.749076094451503E+002  0.750592441063207E+001  0.171962601607341E+002
  0.184607492663275E-001 -0.672197879457782E+003  0.184499523875835E-001  0.746737683138098E+001 -0.334642564763082E+002 -0.109193640510625E+000 -0.729483978221992E+000  0.248088806617224E+001  0.507703434601169E+000  0.749365188968430E+002  0.887597460339478E+001  0.168864500722546E+002
  0.184607492663275E-001 -0.672196883803849E+003  0.194251631365761E-001  0.746736870156352E+001 -0.187770286136997E+003  0.998936745540618E+001 -0.459845388462782E+000  0.239270774181454E+001  0.491501265904636E+000  0.749514492111743E+002  0.803843325459007E+001  0.170604657455242E+002
  0.184607492663275E-001 -0.672196687811633E+003  0.197997708723875E-001  0.746737410975668E+001 -0.116666715584474E+003  0.360699296825851E+001 -0.659060448606624E+000  0.243333448343072E+001  0.511805072397118E+000  0.750998259060427E+002  0.697229584467156E+001  0.168205974463844E+002
  0.184607492663275E-001 -0.663228297758273E+003  0.190703813969860E-001  0.746736651405658E+001 -0.266577787788659E+002  0.130733530198995E+000 -0.136181166989559E+000  0.248477698881901E+001  0.496135133280796E+000  0.750031925828849E+002  0.809350804278521E+001  0.171140383481668E+002
  0.184607492663275E-001 -0.669548075699129E+003  0.174713873961359E-001  0.746736384305499E+001 -0.277080733910958E+003  0.219504839383560E+002 -0.761298539112659E+000  0.234170624267277E+001  0.481400232956831E+000  0.749216484108079E+002  0.749653775510236E+001  0.169377342086748E+002
  0.184607492663275E-001 -0.674526697971209E+003  0.190974066123230E-001  0.746737164878485E+001 -0.187183525734901E+003  0.984776901359805E+001 -0.351992597868048E+000  0.239305696951780E+001  0.496271048864425E+000  0.749436723417502E+002  0.874569340795317E+001  0.169877138903188E+002
  0.184607492663275E-001 -0.674520014524472E+003  0.159718966420720E-001  0.746737343813949E+001 -0.909754280540610E+002  0.207675004355815E+001 -0.813968651526011E+000  0.244800310943183E+001  0.504462548568771E+000  0.750297123712615E+002  0.764775022885821E+001  0.168384391359561E+002
  0.184607492663275E-001 -0.663455050241841E+003  0.203439416991062E-001  0.746740090970325E+001 -0.851505072390075E+002  0.910537582919005E+000 -0.259491013589968E+001  0.245130494511451E+001  0.544928447902002E+000  0.749282169475945E+002  0.631511363083363E+001  0.174677851789091E+002
  0.184607492663275E-001 -0.664009127949163E+003  0.207176368721631E-001  0.746736710074320E+001 -0.177453917916254E+003  0.878497014031154E+001 -0.962374864739672E+000  0.239860080557143E+001  0.490834337959398E+000  0.751079004182206E+002  0.764052863760658E+001  0.168903564135924E+002
  0.184607492663275E-001 -0.674515925070366E+003  0.184019199819939E-001  0.746737633574300E+001  0.605742034216973E+001 -0.188837261434514E+000 -0.534972223714590E+000  0.250344206910543E+001  0.507727909048829E+000  0.750501084079794E+002  0.784343740113265E+001  0.170995474286966E+002
  0.184607492663275E-001 -0.663581191990729E+003  0.216769636574927E-001  0.746736689252882E+001 -0.781287981000972E+002  0.176695487855500E+001  0.330439327129966E+000  0.245537573036032E+001  0.491620055857567E+000  0.748980575530597E+002  0.969705274526559E+001  0.169751355379363E+002
  0.184607492663275E-001 -0.663658859873130E+003  0.178569868595043E-001  0.746738804592342E+001 -0.528415710012146E+002  0.250171887290207E+000 -0.112096936349474E+001  0.246978290878607E+001  0.531072725284469E+000  0.749682118403375E+002  0.659182166295695E+001  0.174605362074497E+002
  0.184607492663275E-001 -0.672100922225437E+003  0.194732984689416E-001  0.746738251484799E+001 -0.592068483601354E+002  0.423297860108619E+000 -0.975215930053992E+000  0.246617972165049E+001  0.522457794815731E+000  0.748851104802623E+002  0.647458093724208E+001  0.169659316234287E+002
  0.184607492663275E-001 -0.663943347082571E+003  0.202685750979298E-001  0.746737929444488E+001 -0.363736193727410E+002 -0.568427058071848E-001 -0.146653521625581E+001  0.247917450907845E+001  0.512184998964746E+000  0.751964606280810E+002  0.711794169194847E+001  0.169402464354700E+002
  0.184607492663275E-001 -0.669529915097662E+003  0.189711052304936E-001  0.746737703953731E+001 -0.171952851522859E+002 -0.246805582680395E+000 -0.643897254020317E+000  0.249015980569362E+001  0.505700484652775E+000  0.750263501870385E+002  0.773874273596529E+001  0.170626739623972E+002
  0.184607492663275E-001 -0.663916137739703E+003  0.227166808427674E-001  0.746739142758018E+001 -0.949460732144901E+002  0.184126844974264E+001 -0.193904667586946E+001  0.244570036436888E+001  0.538618837602453E+000  0.750271366264375E+002  0.596863693998443E+001  0.172609101961738E+002
  0.184607492663275E-001 -0.666401619299517E+003  0.198586795596068E-001  0.746737285776764E+001 -0.525621554720339E+002  0.474604135810182E+000 -0.441696385924160E+000  0.246997568303773E+001  0.507134174893306E+000  0.750757250523700E+002  0.646488310212681E+001  0.169672575753816E+002
  0.184607492663275E-001 -0.674444409199232E+003  0.194814576642862E-001  0.746737049483982E+001 -0.174983405243766E+003  0.868106554192582E+001 -0.524633322819682E+000  0.240000573211195E+001  0.494399128792783E+000  0.749910540453613E+002  0.808992367758381E+001  0.170570246642413E+002
  0.184607492663275E-001 -0.666501461511539E+003  0.214817650840398E-001  0.746735928459772E+001 -0.110943230133215E+003  0.358611151770253E+001  0.525024839031857E+000  0.243665784144147E+001  0.472109678244509E+000  0.749299310025906E+002  0.918625223685184E+001  0.169140388367880E+002
  0.184607492663275E-001 -0.672095807257054E+003  0.172239048213284E-001  0.746737666548436E+001 -0.229400323834013E+003  0.146985534538316E+002 -0.991061242075261E+000  0.236893005078802E+001  0.504617620069136E+000  0.748753190533826E+002  0.711769987596930E+001  0.171619494291949E+002
  0.184607492663275E-001 -0.669489162999366E+003  0.183977052066627E-001  0.746736909372360E+001 -0.181781414049870E+003  0.927517709946164E+001 -0.723012316415520E+000  0.239612308198843E+001  0.496755285189636E+000  0.750818520384606E+002  0.719456026491944E+001  0.168003784262576E+002
  0.184607492663275E-001 -0.666547440968806E+003  0.190257751788941E-001  0.746736321516903E+001 -0.239788805783819E+003  0.164890655882934E+002 -0.405184292021431E+000  0.236300002393425E+001  0.493159831115041E+000  0.749899861227878E+002  0.756908275319967E+001  0.168223980184314E+002
  0.184607492663275E-001 -0.672085356516995E+003  0.204326959305977E-001  0.746738017546977E+001 -0.226670062767453E+003  0.142000283331549E+002 -0.165385126777471E+001  0.237046845746980E+001  0.510581934322162E+000  0.749582617890553E+002  0.658502448353723E+001  0.170342075233595E+002
  0.184607492663275E-001 -0.666570600183762E+003  0.196607870869468E-001  0.746738051862767E+001 -0.622365902782132E+002  0.743244110892306E+000 -0.840447993119824E+000  0.246441819284310E+001  0.506962446086349E+000  0.750890675804996E+002  0.793279854275199E+001  0.173919936873353E+002
  0.184607492663275E-001 -0.666695201473068E+003  0.192991566450753E-001  0.746739940278449E+001 -0.531804155276662E+002 -0.258463045751682E+000 -0.240232088314497E+001  0.246957207459912E+001  0.543108050594455E+000  0.749202772305260E+002  0.623576271391651E+001  0.174615346387825E+002
  0.184607492663275E-001 -0.666709069034520E+003  0.196395115986472E-001  0.746736758429655E+001 -0.824250280307473E+002  0.187357970543587E+001 -0.514375406368117E-001  0.245291426846736E+001  0.504784642042451E+000  0.749841600661933E+002  0.597913844328005E+001  0.165048543680824E+002
  0.184607492663275E-001 -0.666733254040877E+003  0.190436552714348E-001  0.746738762108627E+001 -0.159571180968700E+003  0.652719009518626E+001 -0.203244919065355E+001  0.240879131354467E+001  0.516855059771061E+000  0.749867324710490E+002  0.798234800152072E+001  0.172893866169898E+002
  0.184607492663275E-001 -0.666765627269144E+003  0.203817852203641E-001  0.746737377380889E+001 -0.114626500079648E+003  0.339133341483273E+001 -0.929281645881019E+000  0.243449674519174E+001  0.509347181685785E+000  0.750790788802636E+002  0.586029352139707E+001  0.167509587705527E+002
  0.184607492663275E-001 -0.666805799480475E+003  0.199225048791076E-001  0.746737440715242E+001 -0.172935172432663E+003  0.836035205558437E+001 -0.164318168048226E+000  0.240120653960613E+001  0.508826812168661E+000  0.748380529077494E+002  0.747516013191116E+001  0.171119658734415E+002
  0.184607492663275E-001 -0.666865281386165E+003  0.202834841039822E-001  0.746737818055929E+001 -0.136969548565697E+003  0.480915206846009E+001 -0.909016615606561E+000  0.242175298305552E+001  0.510581042626806E+000  0.749397142097192E+002  0.706619812496591E+001  0.171868869972056E+002
  0.184607492663275E-001 -0.672060617144818E+003  0.196434394389285E-001  0.746737548680193E+001 -0.117231460487119E+003  0.363909982829841E+001 -0.773403149854971E+000  0.243300557220645E+001  0.513311361365769E+000  0.751059856905292E+002  0.671012415497854E+001  0.168643089410306E+002
  0.184607492663275E-001 -0.666911909381455E+003  0.200900331620054E-001  0.746736536832076E+001 -0.604726427805815E+002  0.897452774112367E+000 -0.171535189860947E+000  0.246546558407748E+001  0.494369832061211E+000  0.750167318983942E+002  0.841340955825861E+001  0.167147394804383E+002
  0.184607492663275E-001 -0.666985886952468E+003  0.169889587246963E-001  0.746737113554631E+001 -0.252646162353559E+003  0.180606518646891E+002 -0.839506496352783E+000  0.235565918625432E+001  0.500118397052639E+000  0.748208265459733E+002  0.742878526307263E+001  0.168761913122857E+002
  0.184607492663275E-001 -0.671998259151432E+003  0.190834040220453E-001  0.746737904540045E+001 -0.248598775785581E+003  0.172685653062530E+002 -0.158150004502647E+001  0.235794076611437E+001  0.508020065893750E+000  0.750353443477329E+002  0.671800105168784E+001  0.170759867167817E+002
  0.184607492663275E-001 -0.667002588819314E+003  0.185684488414964E-001  0.746738088530137E+001 -0.100353697002511E+003  0.235152783327464E+001 -0.790456329346171E+000  0.244266269712899E+001  0.507910022144115E+000  0.749608967873642E+002  0.836494089911024E+001  0.172369492626347E+002
  0.184607492663275E-001 -0.667065568201119E+003  0.196956603241157E-001  0.746737930409468E+001 -0.164251472114110E+003  0.733772073542480E+001 -0.639373792175661E+000  0.240614625160830E+001  0.521655396950676E+000  0.749564214470327E+002  0.625787823686800E+001  0.168638248288875E+002
  0.184607492663275E-001 -0.667130501662705E+003  0.206370571553160E-001  0.746738908375045E+001 -0.120001783607221E+003  0.336663987716429E+001 -0.158983007611869E+001  0.243140236981224E+001  0.526388025907605E+000  0.749788981072312E+002  0.663891100456201E+001  0.171847461529481E+002
  0.184607492663275E-001 -0.671976538493060E+003  0.201585492444143E-001  0.746737400437968E+001 -0.216995586947613E+003  0.132626448111988E+002 -0.992884770069736E+000  0.237599722672803E+001  0.507365762031500E+000  0.750522398409724E+002  0.700001642571324E+001  0.170847988862828E+002
  0.184607492663275E-001 -0.671964553966044E+003  0.196014193530735E-001  0.746737040581510E+001 -0.512807307755251E+002  0.572478507943515E+000 -0.111771825132791E-001  0.247072768179620E+001  0.506624829752995E+000  0.749990960667581E+002  0.710063838979785E+001  0.169189403440737E+002
  0.184607492663275E-001 -0.674414678184319E+003  0.192406856637950E-001  0.746738169366612E+001 -0.954045412318090E+002  0.224553409146176E+001 -0.854726290755480E+000  0.244546100893498E+001  0.519989921525020E+000  0.749698416117008E+002  0.659400126315885E+001  0.171994220572235E+002
  0.184607492663275E-001 -0.667353352851055E+003  0.191112347671527E-001  0.746736575414729E+001 -0.768093466537065E+002  0.174568172032980E+001  0.409344462850299E+000  0.245613812955730E+001  0.497477987990544E+000  0.749248652020869E+002  0.628991022569036E+001  0.165470685295881E+002
  0.184607492663275E-001 -0.669470209876820E+003  0.187526812264948E-001  0.746737647574459E+001 -0.544796203017574E+002  0.375388670902566E+000 -0.813492378905835E+000  0.246888427838833E+001  0.511225511268279E+000  0.749490333142111E+002  0.856213622627177E+001  0.168604532938205E+002
  0.184607492663275E-001 -0.667496419827147E+003  0.174289804536720E-001  0.746737481342282E+001 -0.270381472482839E+003  0.206062732058842E+002 -0.132555181606313E+001  0.234551869645461E+001  0.500464860925925E+000  0.748620438801287E+002  0.707819037334266E+001  0.170211100046773E+002
  0.184607492663275E-001 -0.671921610623312E+003  0.196629538639205E-001  0.746737080591831E+001 -0.178867138904423E+003  0.893528996738507E+001 -0.731517874286851E+000  0.239779584222016E+001  0.497456564274406E+000  0.750523102445520E+002  0.674636435890546E+001  0.167375892348626E+002
  0.184607492663275E-001 -0.674383833339723E+003  0.167030983583614E-001  0.746737191457389E+001 -0.141332885465907E+003  0.545554709990733E+001 -0.328338562625049E+000  0.241926103504800E+001  0.500919438105180E+000  0.748910545253082E+002  0.809921932548555E+001  0.169544934951016E+002
  0.184607492663275E-001 -0.669439715764936E+003  0.206220009759864E-001  0.746736600815406E+001 -0.119153734321909E+003  0.413124729472634E+001  0.407088740534277E+000  0.243194106000601E+001  0.485595127191775E+000  0.749952944988248E+002  0.942679945247844E+001  0.168979777679313E+002
  0.184607492663275E-001 -0.674330185774502E+003  0.181354982342471E-001  0.746737197829466E+001 -0.133530040690276E+003  0.485334021579354E+001 -0.463621695298002E+000  0.242371159857638E+001  0.494405741721735E+000  0.749270658427791E+002  0.897462371843081E+001  0.171925332406270E+002
  0.184607492663275E-001 -0.674322910238749E+003  0.195012459825567E-001  0.746737733333971E+001 -0.111415212680932E+003  0.323434358000839E+001 -0.518012800928545E+000  0.243633825177376E+001  0.506260097964777E+000  0.749665650456446E+002  0.873566163243901E+001  0.170987699676270E+002
  0.184607492663275E-001 -0.671847317131539E+003  0.175951031572108E-001  0.746736572655868E+001 -0.117583830221425E+002 -0.389673620537678E-001  0.163081155974737E+000  0.249331393527930E+001  0.480331471270470E+000  0.749060719769807E+002  0.974388435893056E+001  0.169254736450146E+002
  0.184607492663275E-001 -0.667662019327675E+003  0.170843902802129E-001  0.746737002718909E+001 -0.169930223858270E+003  0.798691303035798E+001 -0.816304410354860E+000  0.240290374037129E+001  0.496275099729158E+000  0.750655105463387E+002  0.674156946204993E+001  0.168173450511829E+002
  0.184607492663275E-001 -0.667700640709950E+003  0.195507623673648E-001  0.746737915592270E+001 -0.152735178755863E+003  0.608998654164770E+001 -0.110449254034836E+001  0.241274413834794E+001  0.510965146277373E+000  0.749375702895489E+002  0.689004128595026E+001  0.171916632142558E+002
  0.184607492663275E-001 -0.667752210003654E+003  0.180305211105959E-001  0.746735576417998E+001 -0.325949180755160E+002  0.472470383131849E+000  0.751936466006441E+000  0.248143004324096E+001  0.469607400857652E+000  0.749557805316756E+002  0.102004370067795E+002  0.167777043385220E+002
  0.184607492663275E-001 -0.667791270332207E+003  0.199311003172564E-001  0.746736645411447E+001 -0.126837163800697E+003  0.451448670340972E+001 -0.486121073685695E+000  0.242752014329333E+001  0.493054371855566E+000  0.751529439675942E+002  0.779430573716001E+001  0.167928612674924E+002
  0.184607492663275E-001 -0.667901469360295E+003  0.175259159920230E-001  0.746737241834333E+001 -0.265156063426229E+003  0.198453007899230E+002 -0.125538139428886E+001  0.234850695012332E+001  0.499208453264834E+000  0.748883678023120E+002  0.687214179379813E+001  0.168689216500320E+002
  0.184607492663275E-001 -0.667917383008247E+003  0.200702764008201E-001  0.746737832840165E+001 -0.119651815812958E+003  0.349680937395362E+001 -0.110600477630169E+001  0.243164714413900E+001  0.513593216208389E+000  0.749062654053907E+002  0.659431952384772E+001  0.168456654684745E+002
  0.184607492663275E-001 -0.674307348724106E+003  0.172002002143050E-001  0.746736476732418E+001 -0.166122594667076E+003  0.782199777584844E+001 -0.219775875083428E+000  0.240509589603707E+001  0.492384669125557E+000  0.749456347428238E+002  0.744337362253616E+001  0.167625494325397E+002
  0.184607492663275E-001 -0.667950397453073E+003  0.184407338714246E-001  0.746736935147239E+001 -0.668218279222472E+002  0.112636740750236E+001 -0.502729094663891E+000  0.246182242307006E+001  0.492078178854962E+000  0.750193485266032E+002  0.826460314778519E+001  0.171271459284746E+002
  0.184607492663275E-001 -0.667967045294934E+003  0.216951830862918E-001  0.746738478161403E+001 -0.176945822120468E+003  0.836590509627501E+001 -0.150096091852606E+001  0.239887467837853E+001  0.524693271888114E+000  0.749218449073083E+002  0.572786170541628E+001  0.170267056663109E+002
  0.184607492663275E-001 -0.671843299275444E+003  0.185029687869497E-001  0.746737733547682E+001 -0.349494790982567E+002 -0.117504708475508E+000 -0.768810306107071E+000  0.248003797210721E+001  0.509311082408953E+000  0.749355035372699E+002  0.872010674375272E+001  0.169078352132162E+002
  0.184607492663275E-001 -0.671821740821420E+003  0.179008172187320E-001  0.746737639021912E+001 -0.269480346415997E+003  0.203665030767619E+002 -0.160829317844514E+001  0.234602562272843E+001  0.506942254736798E+000  0.748500908455722E+002  0.742069182539709E+001  0.170514878122850E+002
  0.184607492663275E-001 -0.668125732525477E+003  0.210588505952550E-001  0.746736752389696E+001 -0.958824316936532E+002  0.265873776868000E+001  0.259504825630188E+000  0.244522880169552E+001  0.487071964194577E+000  0.750139643885094E+002  0.978481484845843E+001  0.169288955689622E+002
  0.184607492663275E-001 -0.671817639484417E+003  0.211958533957767E-001  0.746736056675607E+001 -0.358796000753993E+002  0.538872862217545E+000  0.745318896181402E+000  0.247954136648245E+001  0.482570993196301E+000  0.749567043561796E+002  0.884386658224723E+001  0.168123731919691E+002
  0.184607492663275E-001 -0.668204201053686E+003  0.213204809800305E-001  0.746736705770262E+001 -0.501622519323355E+002  0.727912686610694E+000  0.100916488970483E+000  0.247134568847489E+001  0.490842557426191E+000  0.749676384017184E+002  0.981090549792887E+001  0.169502282089567E+002
  0.184607492663275E-001 -0.671782578888507E+003  0.195584411673393E-001  0.746737630338068E+001 -0.996457651742701E+002  0.246956256636713E+001 -0.708667389876837E+000  0.244305837856126E+001  0.512606044165744E+000  0.750841432358546E+002  0.726505694904180E+001  0.168521966300262E+002
  0.184607492663275E-001 -0.668340304331414E+003  0.165502689767285E-001  0.746736441427859E+001 -0.189554011054040E+003  0.102764004065845E+002 -0.565838943611993E+000  0.239168762220546E+001  0.484061870824881E+000  0.750350383773447E+002  0.809629045656544E+001  0.168261060273455E+002
  0.184607492663275E-001 -0.674299207115165E+003  0.183416584430309E-001  0.746737609804944E+001  0.649162744297757E+001 -0.173412904938459E+000 -0.511355400232674E+000  0.250369118704806E+001  0.507287844071755E+000  0.750513072719697E+002  0.787246895983698E+001  0.170922271268896E+002
  0.184607492663275E-001 -0.674282704774872E+003  0.180413428493039E-001  0.746737488524612E+001 -0.266109622848818E+003  0.199377177325387E+002 -0.146855392900102E+001  0.234795055601878E+001  0.503307125610251E+000  0.748912380124975E+002  0.740000312330760E+001  0.170861687504536E+002
  0.184607492663275E-001 -0.671782168907685E+003  0.189666305451313E-001  0.746736646060802E+001 -0.124913616833539E+003  0.442396589376040E+001 -0.304747608053049E+000  0.242861987463490E+001  0.492861695244343E+000  0.750739467405655E+002  0.697537390199156E+001  0.166777346330108E+002
  0.184607492663275E-001 -0.668425751452977E+003  0.191999282090817E-001  0.746736415706438E+001 -0.107653977577404E+003  0.326839958097344E+001 -0.380742275222701E+000  0.243848713975810E+001  0.483237781046900E+000  0.751277758026588E+002  0.884722752190242E+001  0.168847905085431E+002
  0.184607492663275E-001 -0.674281917851979E+003  0.183106324859021E-001  0.746738262999390E+001 -0.294756980165637E+002 -0.173230402918989E+000 -0.921150262472224E+000  0.248313331064052E+001  0.513562858158394E+000  0.750358442891867E+002  0.770784702831072E+001  0.171579190332334E+002
  0.184607492663275E-001 -0.669379661023215E+003  0.211822860926875E-001  0.746736424613458E+001  0.125061444372034E+001  0.195549688141909E-001  0.445908705039074E+000  0.250075514387237E+001  0.493905549961004E+000  0.749413316511183E+002  0.842880363271873E+001  0.167539943008387E+002
  0.184607492663275E-001 -0.668560781157547E+003  0.179062867546481E-001  0.746737721583294E+001 -0.100267203770360E+002 -0.166018243604753E+000 -0.609043286091378E+000  0.249424817744694E+001  0.506936399565414E+000  0.750869260808636E+002  0.782598049432344E+001  0.171016005211499E+002
  0.184607492663275E-001 -0.674252507444873E+003  0.165295185686150E-001  0.746737299903971E+001 -0.264008587315148E+003  0.196138413547777E+002 -0.158148314637049E+001  0.234914552809310E+001  0.501786940642872E+000  0.749273665921808E+002  0.716372161738193E+001  0.169913401226770E+002
  0.184607492663275E-001 -0.674235212387190E+003  0.182975883765703E-001  0.746737781402247E+001 -0.237528968538686E+001 -0.249566573555512E+000 -0.667481145723968E+000  0.249862100887010E+001  0.508265517581779E+000  0.750641760361455E+002  0.799398051293373E+001  0.171014290042914E+002
  0.184607492663275E-001 -0.669333932879433E+003  0.170613547095244E-001  0.746737301430870E+001 -0.788321855571097E+002  0.162005253743837E+001 -0.434387953419673E+000  0.245495464351856E+001  0.505368262302736E+000  0.750008253902966E+002  0.734910015299122E+001  0.170206013171747E+002
  0.184607492663275E-001 -0.668709345156061E+003  0.191945660272104E-001  0.746737236308907E+001 -0.908219744932111E+002  0.196248348204506E+001 -0.596206737780676E+000  0.244812738942828E+001  0.499515197551494E+000  0.749067575664417E+002  0.847672635041644E+001  0.167718119348161E+002
  0.184607492663275E-001 -0.668711980873110E+003  0.171243230485287E-001  0.746737489389303E+001 -0.254387609474727E+003  0.181471630540755E+002 -0.143481709799028E+001  0.235464452659554E+001  0.503735133442872E+000  0.748619959673233E+002  0.688197448424978E+001  0.170919908845687E+002
  0.184607492663275E-001 -0.668744607869363E+003  0.222230399988292E-001  0.746737306961265E+001 -0.107714071952604E+003  0.301944369102205E+001 -0.451487879148544E+000  0.243846388279880E+001  0.510237117533220E+000  0.749136181477289E+002  0.643565796032246E+001  0.168292175432279E+002
  0.184607492663275E-001 -0.668772196032900E+003  0.178245727229131E-001  0.746737795529352E+001 -0.258182034753100E+003  0.186137456371338E+002 -0.151269948395736E+001  0.235248261464675E+001  0.504936675213264E+000  0.748699694272233E+002  0.688670665021019E+001  0.170961728095789E+002
  0.184607492663275E-001 -0.668811476458149E+003  0.204055927824640E-001  0.746737933586467E+001 -0.152532611041041E+003  0.623711535863117E+001 -0.960724972272374E+000  0.241282792104579E+001  0.511395094383472E+000  0.750163526061341E+002  0.834110748462905E+001  0.171564899325270E+002
  0.184607492663275E-001 -0.668812557268045E+003  0.184277140332068E-001  0.746737797017749E+001 -0.136768346715015E+003  0.489112749359367E+001 -0.110925705521231E+001  0.242184662232470E+001  0.497825003561807E+000  0.749581719556151E+002  0.877534278893027E+001  0.171384808616148E+002
  0.184607492663275E-001 -0.668853563936443E+003  0.180690445269704E-001  0.746737444540020E+001 -0.256593337125618E+002 -0.178975964106598E+000 -0.388732199606352E+000  0.248536031170950E+001  0.500450481591279E+000  0.748930970105865E+002  0.914041071623470E+001  0.169395615114971E+002
  0.184607492663275E-001 -0.669322167672059E+003  0.185508641733053E-001  0.746738176889339E+001 -0.305592477389623E+002 -0.290590577356170E+000 -0.103104638216109E+001  0.248253899737323E+001  0.515854217897382E+000  0.749229404874352E+002  0.846044063886193E+001  0.169267125604911E+002
  0.184607492663275E-001 -0.674211816134090E+003  0.182864543400830E-001  0.746737729405695E+001 -0.159439619354566E+001 -0.245660253261462E+000 -0.606444986129532E+000  0.249906897865765E+001  0.507603746836908E+000  0.750613308529330E+002  0.804949160848157E+001  0.170981314322977E+002
  0.184607492663275E-001 -0.671697655307820E+003  0.170080950371353E-001  0.746737817706951E+001 -0.269848577324746E+003  0.203972954067098E+002 -0.179641975068307E+001  0.234580582238180E+001  0.510669188421270E+000  0.748624433146593E+002  0.687138637571750E+001  0.170743646285503E+002
  0.184607492663275E-001 -0.671691772152537E+003  0.200717062318575E-001  0.746737444145106E+001 -0.121790900969578E+003  0.396461219325818E+001 -0.684104955354314E+000  0.243040107966426E+001  0.511421972815291E+000  0.751143207513731E+002  0.697532180623043E+001  0.168451838622153E+002
  0.184607492663275E-001 -0.674181629698021E+003  0.175268514272782E-001  0.746736522075042E+001 -0.144620122261684E+003  0.593779160626923E+001 -0.862695476685076E-001  0.241738248936958E+001  0.488305816946312E+000  0.750563761548097E+002  0.802777169004522E+001  0.170024988989026E+002
  0.184607492663275E-001 -0.668993686794602E+003  0.183404589841112E-001  0.746737377003024E+001 -0.520669096605463E+002  0.444920793698316E+000 -0.576654457185668E+000  0.247026221591804E+001  0.505559857269934E+000  0.749571564505825E+002  0.891608209534048E+001  0.167877612758300E+002
  0.184607492663275E-001 -0.669318515740754E+003  0.194153749335101E-001  0.746736212423602E+001 -0.262992184182809E+002  0.208704283469956E+000  0.503495896926324E+000  0.248501515599973E+001  0.482300177986860E+000  0.749582539735132E+002  0.948798502393841E+001  0.168723763963795E+002
  0.184607492663275E-001 -0.669082353194943E+003  0.187906920968573E-001  0.746735563253345E+001 -0.309039783964346E+002  0.471578338635936E+000  0.914812887325297E+000  0.248240322588935E+001  0.472856542110195E+000  0.749441941781799E+002  0.937821545744860E+001  0.167575538482717E+002
  0.184607492663275E-001 -0.671653650774284E+003  0.213386458233496E-001  0.746738715849594E+001 -0.117537301122607E+003  0.330069213724914E+001 -0.144833246213057E+001  0.243281507533546E+001  0.532755473955618E+000  0.749134463746371E+002  0.576493077893943E+001  0.170815462275899E+002
  0.184607492663275E-001 -0.674127263934570E+003  0.189793258377170E-001  0.746738556904421E+001 -0.986983120943685E+002  0.221489990642237E+001 -0.134956511829557E+001  0.244357118527464E+001  0.522807113980945E+000  0.749461718759900E+002  0.715241534991784E+001  0.172643705349358E+002
  0.184607492663275E-001 -0.669138016372953E+003  0.171994466214176E-001  0.746737532257934E+001 -0.264618132274185E+003  0.196498034554434E+002 -0.145977869305659E+001  0.234880711765091E+001  0.504278685729355E+000  0.748429016056971E+002  0.702012224061141E+001  0.171021886969665E+002
  0.184607492663275E-001 -0.669138328785170E+003  0.181853391209082E-001  0.746736758556561E+001 -0.279673490134703E+003  0.221660037202794E+002 -0.154365554240883E+001  0.234019945632674E+001  0.490100708355493E+000  0.749731184295123E+002  0.719028406503869E+001  0.168497373227341E+002
  0.184607492663275E-001 -0.669159252002683E+003  0.181729419894019E-001  0.746738032966472E+001 -0.393379769950332E+002 -0.117744844597155E+000 -0.955703579507258E+000  0.247752829779404E+001  0.512361708274339E+000  0.749029989216642E+002  0.868901854729661E+001  0.169648984602596E+002
  0.184607492663275E-001 -0.671583310680118E+003  0.181723794048540E-001  0.746736530175900E+001 -0.911089476986346E+002  0.234146697641836E+001 -0.111424795606354E+000  0.244795667893325E+001  0.480811977544928E+000  0.749702298405478E+002  0.947815370782537E+001  0.170440470346686E+002
  0.184607492663275E-001 -0.669228167855660E+003  0.163072679220607E-001  0.746736765566306E+001 -0.174945327868215E+003  0.870345667258562E+001 -0.493673522493395E+000  0.240003734229169E+001  0.494772572137032E+000  0.749671573179702E+002  0.783839531061012E+001  0.168404453487963E+002
  0.184607492663275E-001 -0.670039495062816E+003  0.186152327907682E-001  0.746738247872195E+001 -0.279076397531654E+002 -0.371604386371246E+000 -0.110107765888677E+001  0.248405237264064E+001  0.516721476593455E+000  0.749188967158823E+002  0.840490934371545E+001  0.169462646152841E+002
  0.184607492663275E-001 -0.670074469733222E+003  0.194650168426346E-001  0.746736863368617E+001 -0.145667072860091E+003  0.592058953259243E+001 -0.595498060885689E+000  0.241675704614193E+001  0.498301152228610E+000  0.750365756754619E+002  0.691310281359022E+001  0.166709450548273E+002
  0.184607492663275E-001 -0.671567081071941E+003  0.198339477881849E-001  0.746736888229574E+001 -0.950615955965104E+002  0.249202274390473E+001 -0.256557253512369E+000  0.244569069506513E+001  0.487376339395141E+000  0.749583294740432E+002  0.917146245348643E+001  0.170175141960628E+002
  0.184607492663275E-001 -0.671561489448824E+003  0.202454055914730E-001  0.746737612756091E+001 -0.151064995841644E+003  0.622484664143212E+001 -0.479664673514435E+000  0.241368765153267E+001  0.502942101876845E+000  0.749766036932965E+002  0.861801954361852E+001  0.170855382181446E+002
  0.184607492663275E-001 -0.670263568037098E+003  0.211707815626511E-001  0.746736633416760E+001 -0.931493442515477E+001  0.467484718819833E-002  0.314509869183894E+000  0.249471271033180E+001  0.497070338437924E+000  0.749405660235996E+002  0.822402166710151E+001  0.168013133981094E+002
  0.184607492663275E-001 -0.670273629327218E+003  0.204538815108309E-001  0.746737677764635E+001 -0.161674563464170E+003  0.721515268093026E+001 -0.655407363356744E+000  0.240761155941732E+001  0.507165925366298E+000  0.750074544111630E+002  0.865996736722647E+001  0.170783065283263E+002
  0.184607492663275E-001 -0.670326926472962E+003  0.177415699774428E-001  0.746736864103877E+001 -0.161502861867123E+002 -0.765694382481570E-001  0.123573099501755E+000  0.249081271909699E+001  0.491601182097558E+000  0.748568450002539E+002  0.901625217167715E+001  0.169652449178339E+002
  0.184607492663275E-001 -0.671547036495930E+003  0.196931266889669E-001  0.746737059110570E+001 -0.520377515052951E+002  0.592059687255301E+000 -0.348300389482574E-001  0.247029442527326E+001  0.507184872238999E+000  0.749975078857015E+002  0.707329666295561E+001  0.169195337982758E+002
  0.184607492663275E-001 -0.671502245541157E+003  0.183771835108307E-001  0.746736625451748E+001 -0.183832928798619E+003  0.957821002767048E+001 -0.706582000047547E+000  0.239495380568472E+001  0.484888031786243E+000  0.750790883913028E+002  0.826820955698668E+001  0.168210382392590E+002
  0.184607492663275E-001 -0.670358798530196E+003  0.166353546238115E-001  0.746738039084285E+001 -0.159995439509440E+003  0.682069773545879E+001 -0.143634596021434E+001  0.240855923897826E+001  0.506749224792668E+000  0.750531713241225E+002  0.798536869524884E+001  0.171421622154726E+002
  0.184607492663275E-001 -0.670378146183850E+003  0.194315224546279E-001  0.746737015841739E+001 -0.667157318591663E+002  0.107934820025162E+001  0.698900002788605E-001  0.246191400512509E+001  0.506257044294886E+000  0.749827999283711E+002  0.714156623891930E+001  0.168830819743864E+002
  0.184607492663275E-001 -0.671495892458631E+003  0.167747349286105E-001  0.746737670875838E+001 -0.242906108895181E+003  0.164888757256130E+002 -0.149379171302098E+001  0.236119538116018E+001  0.501318284308737E+000  0.750351518202564E+002  0.737614143242679E+001  0.170772649942380E+002
  0.184607492663275E-001 -0.671494586108346E+003  0.189342886390282E-001  0.746736487625718E+001 -0.246902299972768E+003  0.174146936164746E+002 -0.657309878573074E+000  0.235894008678766E+001  0.489888232536867E+000  0.750468965121200E+002  0.767931180758584E+001  0.168594270799391E+002
  0.184607492663275E-001 -0.671490886962070E+003  0.200628403532055E-001  0.746737467193422E+001 -0.219456999391980E+003  0.135369845426005E+002 -0.999177397440690E+000  0.237459668259198E+001  0.510342037204310E+000  0.750156896099857E+002  0.684641108343814E+001  0.171121911127911E+002
  0.184607492663275E-001 -0.670489235422327E+003  0.196550335406577E-001  0.746737517264183E+001 -0.716190553165434E+002  0.114203267893868E+001 -0.686686706718092E+000  0.245906640011402E+001  0.507261504761160E+000  0.750198572465059E+002  0.812543375054522E+001  0.167956104116894E+002
  0.184607492663275E-001 -0.674087904362588E+003  0.199978669083751E-001  0.746737387407790E+001 -0.201457352019947E+003  0.113706651111331E+002 -0.640494800740498E+000  0.238489755562626E+001  0.508762874339077E+000  0.749617489706587E+002  0.741210043503077E+001  0.168866393283201E+002
  0.184607492663275E-001 -0.670534823502968E+003  0.166195394009281E-001  0.746737477437299E+001 -0.272654763821510E+003  0.210044139089727E+002 -0.151171122394305E+001  0.234420164522524E+001  0.501495493054054E+000  0.748983582617909E+002  0.733744599616364E+001  0.170975034032628E+002
  0.184607492663275E-001 -0.671447757692227E+003  0.187012751320939E-001  0.746736877188384E+001 -0.172906063120878E+003  0.840709527506897E+001 -0.701665966133532E+000  0.240119262797493E+001  0.496380120684800E+000  0.751147550858288E+002  0.734321169391985E+001  0.167651570795134E+002
  0.184607492663275E-001 -0.670602845188437E+003  0.184433573047052E-001  0.746737745354345E+001 -0.368897609183668E+002 -0.580126708049420E-001 -0.861758507506011E+000  0.247892608859406E+001  0.508972653548675E+000  0.749127901174704E+002  0.892506090915733E+001  0.168966988143511E+002
  0.184607492663275E-001 -0.671437153894550E+003  0.172582999407640E-001  0.746736643038177E+001 -0.100051833461823E+003  0.274980302292454E+001  0.163889032555289E+000  0.244286327603151E+001  0.487290903962969E+000  0.749690641798208E+002  0.842880417763701E+001  0.167899382856953E+002
  0.184607492663275E-001 -0.671370629347404E+003  0.169972881932048E-001  0.746737108910892E+001 -0.250900772377155E+003  0.177913621398609E+002 -0.102538791346922E+001  0.235664299339524E+001  0.498189920232372E+000  0.748850678410258E+002  0.728450530758775E+001  0.170054775660271E+002
  0.184607492663275E-001 -0.670767576923794E+003  0.167173408705929E-001  0.746737254889250E+001 -0.150889640164080E+003  0.630860980005821E+001 -0.653305003981927E+000  0.241377529273582E+001  0.507645994971983E+000  0.749214855417365E+002  0.727447633609417E+001  0.167579614078489E+002
  0.184607492663275E-001 -0.670794920804099E+003  0.183323946566430E-001  0.746737956772391E+001 -0.397426480519604E+002 -0.793870203937104E-001 -0.949716446597904E+000  0.247729680369372E+001  0.510426529130625E+000  0.749090280797752E+002  0.872728851342977E+001  0.169455788020223E+002
  0.184607492663275E-001 -0.674078942836333E+003  0.159404411756412E-001  0.746737129599255E+001 -0.159542259684317E+003  0.711815540838234E+001 -0.553417270381487E+000  0.240883765751977E+001  0.499772580470773E+000  0.749413129198800E+002  0.760300448957357E+001  0.168541989748689E+002
  0.184607492663275E-001 -0.670820690508708E+003  0.169885549341951E-001  0.746737688593236E+001 -0.256704348125764E+003  0.185002727079249E+002 -0.148279470289810E+001  0.235331761815051E+001  0.501886439967047E+000  0.749895404878586E+002  0.731533994840731E+001  0.171105769016438E+002
  0.184607492663275E-001 -0.671364839945426E+003  0.195319948200467E-001  0.746736651203679E+001 -0.134944406625936E+003  0.526347037616222E+001  0.163340751805322E+000  0.242291106992005E+001  0.492301074764265E+000  0.750414931205121E+002  0.792202157366238E+001  0.169466128767350E+002
  0.184607492663275E-001 -0.671333378175394E+003  0.196792619145216E-001  0.746737431380930E+001 -0.216371956503722E+003  0.131908551891427E+002 -0.964237581969655E+000  0.237635454757118E+001  0.509372254877244E+000  0.750310788947395E+002  0.688050288247520E+001  0.171074267818580E+002
  0.184607492663275E-001 -0.670862623561835E+003  0.166256771159933E-001  0.746737320019191E+001 -0.257083593854557E+003  0.186312044056789E+002 -0.132209694216795E+001  0.235310896783261E+001  0.501438975827094E+000  0.748716722600285E+002  0.725936362365546E+001  0.170200393947524E+002
  0.184607492663275E-001 -0.670882791601163E+003  0.197633191813359E-001  0.746736269226451E+001 -0.970113828181217E+002  0.270760811707407E+001  0.454514309365322E+000  0.244460724081523E+001  0.483982409637376E+000  0.749621908323793E+002  0.946454792221991E+001  0.167686433749452E+002
  0.184607492663275E-001 -0.674052121560930E+003  0.183227904584750E-001  0.746738291024801E+001 -0.299452548011765E+002 -0.162446664014283E+000 -0.948422702033668E+000  0.248286341973339E+001  0.513962155812615E+000  0.750352130226304E+002  0.767751374511694E+001  0.171604615930676E+002
  0.184607492663275E-001 -0.670905286096294E+003  0.196863615439780E-001  0.746737944088094E+001 -0.115033871496593E+003  0.347208226595615E+001 -0.352543573966500E+000  0.243427308977693E+001  0.522093137690512E+000  0.749368363969394E+002  0.641475607617711E+001  0.169257794845871E+002
  0.184607492663275E-001 -0.670910312506192E+003  0.190034515348697E-001  0.746737819902514E+001 -0.426699255436786E+002  0.349306185955811E-002 -0.849988315121436E+000  0.247562759461831E+001  0.513544478787108E+000  0.749632863514188E+002  0.835298414778838E+001  0.169288063508604E+002
  0.184607492663275E-001 -0.673975652252317E+003  0.204293024078163E-001  0.746736936874553E+001 -0.142337296693055E+003  0.569748457745095E+001 -0.554872509408710E+000  0.241865854017846E+001  0.492985446622092E+000  0.750372604299167E+002  0.789887997433776E+001  0.169871252143155E+002
  0.184607492663275E-001 -0.673915161187799E+003  0.192306832210380E-001  0.746738073017706E+001 -0.944835446780404E+002  0.223180585437774E+001 -0.770467744502184E+000  0.244599146631500E+001  0.517409351428004E+000  0.749587980584995E+002  0.675180963115287E+001  0.172022729651813E+002
  0.184607492663275E-001 -0.673831052536228E+003  0.178514913755362E-001  0.746737357405857E+001 -0.434974541347797E+002  0.318819052222352E+000 -0.198132659149564E+000  0.247515435380144E+001  0.504506249988632E+000  0.750107832991707E+002  0.813799249128921E+001  0.171334539518598E+002
  0.184607492663275E-001 -0.671209671209171E+003  0.186058775723659E-001  0.746737656847468E+001 -0.263288131065487E+003  0.194840908513592E+002 -0.145509306226108E+001  0.234955727652286E+001  0.507038782500849E+000  0.748437119582826E+002  0.703512091825055E+001  0.170503872160064E+002
  0.184607492663275E-001 -0.671036455053206E+003  0.167834169653476E-001  0.746737761491484E+001 -0.262533367686086E+003  0.193263448915477E+002 -0.149063000914805E+001  0.234999184735753E+001  0.505857187486872E+000  0.749269777571272E+002  0.679026213072870E+001  0.170403897060300E+002
  0.184607492663275E-001 -0.671045086158798E+003  0.198478408501639E-001  0.746738769133721E+001 -0.175229516700974E+003  0.815127012810501E+001 -0.169400262067109E+001  0.239984784114310E+001  0.530843271664602E+000  0.749990202362739E+002  0.650720058927806E+001  0.171580302076124E+002
  0.184607492663275E-001 -0.671107725934107E+003  0.183823459739903E-001  0.746737134189521E+001 -0.248330068654096E+003  0.173578979406603E+002 -0.100606563773022E+001  0.235812613650615E+001  0.503330582007413E+000  0.748976544739535E+002  0.648848216402509E+001  0.167921363257570E+002
  0.184607492663275E-001 -0.671116876361572E+003  0.207823266392215E-001  0.746737610434298E+001 -0.316085205057300E+001 -0.143882997094693E+000 -0.280021859640669E+000  0.249818553928935E+001  0.510799755158755E+000  0.750068586058344E+002  0.730318180399273E+001  0.170291943869920E+002
  0.184607492663275E-001 -0.671122124010999E+003  0.203307878859141E-001  0.746737970896764E+001 -0.230075017877604E+003  0.146201839421041E+002 -0.169193228351412E+001  0.236852227680620E+001  0.509548649692492E+000  0.749591377551475E+002  0.663045701219260E+001  0.170158146086204E+002
  0.184607492663275E-001 -0.671130181063057E+003  0.168197470244480E-001  0.746737320102388E+001 -0.257869536433877E+003  0.187126893689025E+002 -0.130531470508436E+001  0.235265945225571E+001  0.502437655849497E+000  0.748721592523970E+002  0.718159811015606E+001  0.169939515821725E+002
  0.184607492663275E-001 -0.671161264008235E+003  0.181567969223669E-001  0.746738298306500E+001 -0.254595852688155E+002 -0.205830028299943E+000 -0.960121132083373E+000  0.248542480021715E+001  0.514367287382182E+000  0.750488485257313E+002  0.762046879826458E+001  0.171856878551562E+002
  0.184607492663275E-001 -0.671165099655124E+003  0.187641505672515E-001  0.746738028434855E+001 -0.244542295149906E+003  0.166380456051182E+002 -0.158721690728919E+001  0.236025725071251E+001  0.510008580761804E+000  0.750295202771561E+002  0.672018573650150E+001  0.170991822920610E+002
  0.184607492663275E-001 -0.671168747140829E+003  0.199556552101758E-001  0.746737653119409E+001 -0.913806079673521E+002  0.208958281861226E+001 -0.780730901115930E+000  0.244777469247445E+001  0.513369045223419E+000  0.751035152769972E+002  0.700217066151321E+001  0.169275596583846E+002
  0.184607492663275E-001 -0.671172077894681E+003  0.183337113195805E-001  0.746737591041238E+001 -0.303583124149352E+002 -0.114980901525314E+000 -0.636022447818732E+000  0.248266469062091E+001  0.505718624356031E+000  0.749306559249814E+002  0.901817144102223E+001  0.168849609898565E+002
  0.184607492663275E-001 -0.672607641245562E+003  0.183128732094920E-001  0.746737256028131E+001 -0.216401870983250E+003  0.131943033333637E+002 -0.103186943254866E+001  0.237633604062156E+001  0.505459380936923E+000  0.750071571472765E+002  0.680411290819969E+001  0.170846378631948E+002
  0.184607492663275E-001 -0.672608417706349E+003  0.168502805540664E-001  0.746737387501082E+001 -0.255451444528845E+003  0.183465466892294E+002 -0.134031288601204E+001  0.235404050089802E+001  0.503994996820755E+000  0.748676209541358E+002  0.700481419677236E+001  0.170130575993533E+002
  0.184607492663275E-001 -0.672675071103604E+003  0.162398436349977E-001  0.746736805888899E+001 -0.166406485596547E+003  0.781002971136741E+001 -0.386080335358201E+000  0.240492155956371E+001  0.497363521840438E+000  0.749400099465954E+002  0.777953294384088E+001  0.167578509256875E+002
  0.184607492663275E-001 -0.672740263848483E+003  0.171006576953628E-001  0.746736287564191E+001 -0.198024965448006E+003  0.113305463188323E+002  0.712861287008764E-001  0.238687140596803E+001  0.485570248491491E+000  0.750111875047384E+002  0.863610254319415E+001  0.167914239343772E+002
  0.184607492663275E-001 -0.673763412915832E+003  0.192904799067279E-001  0.746736922736855E+001 -0.386684405216446E+002  0.318996033229723E+000  0.117268053100929E+000  0.247792537178776E+001  0.498833885942971E+000  0.749991581446668E+002  0.836176845336444E+001  0.170083164713362E+002
  0.184607492663275E-001 -0.672797101336757E+003  0.186373329386106E-001  0.746738095294607E+001 -0.963865520881616E+002  0.229275312282823E+001 -0.833445414278572E+000  0.244490201739773E+001  0.518288752201518E+000  0.749533054319875E+002  0.651795143978413E+001  0.172528084312127E+002
  0.184607492663275E-001 -0.672881452989830E+003  0.190769913531218E-001  0.746735871531503E+001 -0.352383723000986E+002  0.516427911884534E+000  0.700240568610297E+000  0.247991204470669E+001  0.477291752346727E+000  0.749688498919206E+002  0.972983938863988E+001  0.167840559095222E+002
  0.184607492663275E-001 -0.672891998936365E+003  0.176774832304924E-001  0.746737603675959E+001 -0.201782597418070E+003  0.112742368963028E+002 -0.156479284739726E+001  0.238467367262584E+001  0.503254241495962E+000  0.750070226608373E+002  0.781122163168596E+001  0.169248944134422E+002
  0.184607492663275E-001 -0.672917578258966E+003  0.191025311996448E-001  0.746736912300734E+001 -0.134414203913316E+003  0.492189573973417E+001 -0.580221874375525E+000  0.242320746903006E+001  0.488339518506191E+000  0.749124731957717E+002  0.886663751075807E+001  0.168836141750161E+002
  0.184607492663275E-001 -0.672959826993647E+003  0.191620521548014E-001  0.746735814652772E+001 -0.364925666269668E+002  0.557630123701529E+000  0.750306699584371E+000  0.247919704834941E+001  0.476769615428227E+000  0.749705524009314E+002  0.957119656478500E+001  0.167933809560033E+002
  0.184607492663275E-001 -0.672960711902400E+003  0.189688346565384E-001  0.746736537388016E+001 -0.153690029981721E+003  0.667270997353216E+001 -0.296138963808062E+000  0.241220132863748E+001  0.488483838359923E+000  0.749896818698502E+002  0.857792269389142E+001  0.169787325917275E+002
  0.184607492663275E-001 -0.672965200574581E+003  0.179990396987914E-001  0.746736824178194E+001 -0.215214390769593E+003  0.131320561649719E+002 -0.760210762039264E+000  0.237703479544628E+001  0.492130453335798E+000  0.750441619260063E+002  0.776701248115728E+001  0.168986727351073E+002
  0.184607492663275E-001 -0.673044963042645E+003  0.192065628093715E-001  0.746738418772195E+001 -0.151262036782107E+003  0.596818546175257E+001 -0.130313653467510E+001  0.241354743066064E+001  0.526919771337450E+000  0.749468020248089E+002  0.682738482350834E+001  0.170354386463762E+002
  0.184607492663275E-001 -0.673079585248933E+003  0.182547524168875E-001  0.746736291553205E+001 -0.215726748620309E+003  0.133168454058024E+002 -0.356165175498631E+000  0.237675319023818E+001  0.484842037457830E+000  0.750666538612806E+002  0.798964286880542E+001  0.168075211235898E+002
  0.184607492663275E-001 -0.673731248663353E+003  0.193094150010950E-001  0.746738064104763E+001 -0.247961686286768E+003  0.171207057994862E+002 -0.169074790327932E+001  0.235830595851220E+001  0.517395026307130E+000  0.748988288857422E+002  0.702723480865278E+001  0.170944254137350E+002
  0.184607492663275E-001 -0.673103127791095E+003  0.167671230222420E-001  0.746737368933698E+001 -0.256547248737709E+003  0.185299435551658E+002 -0.133865229535070E+001  0.235341464612884E+001  0.503250018138345E+000  0.748737053433621E+002  0.712395861666074E+001  0.170101867733319E+002
  0.184607492663275E-001 -0.673143704594539E+003  0.175149357110215E-001  0.746736676791860E+001 -0.807975866450158E+001 -0.186697630368826E-001  0.176850400015269E+000  0.249540900321192E+001  0.482273438040046E+000  0.749074622311279E+002  0.969303395768287E+001  0.169698681234229E+002
  0.184607492663275E-001 -0.673155882222701E+003  0.182569213242274E-001  0.746738352706567E+001 -0.299697513129352E+002 -0.173130619649669E+000 -0.977608317276804E+000  0.248284996892836E+001  0.514647331797063E+000  0.750338310288111E+002  0.765722563021778E+001  0.171765190998316E+002
  0.184607492663275E-001 -0.673187465553268E+003  0.188877563153564E-001  0.746738361607632E+001 -0.184621735426645E+003  0.915864701374790E+001 -0.156749944392732E+001  0.239449521036188E+001  0.519767374307073E+000  0.750050983183831E+002  0.726504326363343E+001  0.171616473089044E+002
  0.184607492663275E-001 -0.673204426942096E+003  0.186171733577414E-001  0.746738344675809E+001 -0.127289830754532E+003  0.404253082961930E+001 -0.135884866295544E+001  0.242725164349367E+001  0.523207062907073E+000  0.750470809280675E+002  0.634740215389411E+001  0.168684122899613E+002
  0.184607492663275E-001 -0.673205998754631E+003  0.176472640555064E-001  0.746737637469374E+001 -0.387025758813427E+002  0.882006026787394E-001 -0.601040869738881E+000  0.247788970149843E+001  0.504755613966505E+000  0.749034940180598E+002  0.858177512711879E+001  0.169080498075662E+002
  0.184607492663275E-001 -0.673235204985323E+003  0.197740615539384E-001  0.746737507187057E+001 -0.176008116493227E+003  0.861477686356204E+001 -0.672048245284714E+000  0.239942552069678E+001  0.515087470825515E+000  0.750278970268691E+002  0.632088927172832E+001  0.168096393232537E+002
  0.184607492663275E-001 -0.673279698464365E+003  0.178980972768008E-001  0.746738000681388E+001 -0.158917915318277E+002 -0.329684573373470E+000 -0.851408674010031E+000  0.249090034372840E+001  0.507686308253212E+000  0.750326176914923E+002  0.807222367498571E+001  0.171650330258283E+002
  0.184607492663275E-001 -0.673307674522096E+003  0.172013371767470E-001  0.746737227381706E+001 -0.187563586075819E+003  0.977252116412774E+001 -0.683578694075095E+000  0.239283673235217E+001  0.503139407284079E+000  0.749135564891470E+002  0.649927640118922E+001  0.168902618206577E+002
  0.184607492663275E-001 -0.673696245574262E+003  0.198673165323492E-001  0.746737147444681E+001 -0.115574501747657E+003  0.368126241116124E+001 -0.404943678833092E+000  0.243396000404282E+001  0.499688913800336E+000  0.750520987384333E+002  0.686940073758004E+001  0.167919942957785E+002
  0.184607492663275E-001 -0.673691016903781E+003  0.166701824301605E-001  0.746737247915611E+001 -0.257579794305752E+003  0.187073809198870E+002 -0.129107383511587E+001  0.235282506591175E+001  0.499753270204314E+000  0.748870368467335E+002  0.728651904243918E+001  0.170139168310684E+002
  0.184607492663275E-001 -0.673344379165394E+003  0.204814224095306E-001  0.746737271845816E+001 -0.171608288009940E+003  0.824439978795306E+001 -0.348966317531222E+000  0.240195089766198E+001  0.497960724857528E+000  0.749793672310608E+002  0.855575718784260E+001  0.170352849250847E+002
  0.184607492663275E-001 -0.673353194913829E+003  0.174265818328866E-001  0.746736973311826E+001 -0.161669595754440E+003  0.726755307073051E+001 -0.613702075023866E+000  0.240762572908674E+001  0.501714628999079E+000  0.749359575989817E+002  0.787246930648792E+001  0.167551168446690E+002
  0.184607492663275E-001 -0.673681923762045E+003  0.181690448173976E-001  0.746736265018857E+001 -0.210696781393057E+003  0.127073622001687E+002 -0.285561630743814E+000  0.237963025968774E+001  0.484880834389330E+000  0.750515659909424E+002  0.812156785757588E+001  0.167914957651640E+002
  0.184607492663275E-001 -0.673433440877664E+003  0.175949769077300E-001  0.746736434915711E+001 -0.221984065061581E+003  0.141510609456661E+002 -0.806424399057732E-001  0.237318560582486E+001  0.487367035178130E+000  0.749291821732583E+002  0.871366863279628E+001  0.168387384851409E+002
  0.184607492663275E-001 -0.673464387323625E+003  0.175443311263675E-001  0.746736643534629E+001 -0.153099842498174E+002 -0.167325112349772E-001  0.113029584843048E+000  0.249128047840298E+001  0.481434943141939E+000  0.749176132135714E+002  0.960446433396722E+001  0.169397221928883E+002
  0.184607492663275E-001 -0.673680134066788E+003  0.160188804513238E-001  0.746736967939759E+001 -0.141353188463317E+003  0.558921747587340E+001 -0.362847841113876E+000  0.241923453910241E+001  0.500409103313990E+000  0.749327384253447E+002  0.754233093827671E+001  0.167858420441444E+002
  0.184607492663275E-001 -0.673558044380525E+003  0.177515718863236E-001  0.746736381338337E+001 -0.220514072541205E+003  0.139892845749929E+002 -0.316331306429447E-001  0.237402438329236E+001  0.486000346743495E+000  0.749298939194796E+002  0.884171529239444E+001  0.168601631753992E+002
  0.184607492663275E-001 -0.672282918377879E+003  0.164801298379765E-001  0.746737330847538E+001 -0.259981422110263E+003  0.190176817976353E+002 -0.153502381256999E+001  0.235144743004703E+001  0.502998867128450E+000  0.749408799160761E+002  0.706119145215395E+001  0.169737783183646E+002
  0.184607492663275E-001 -0.672556889323843E+003  0.190093653944064E-001  0.746737692916682E+001 -0.245658839719681E+003  0.168515800760467E+002 -0.141465187325025E+001  0.235963446486389E+001  0.512516890082120E+000  0.748910624679890E+002  0.696846680324629E+001  0.170167385984446E+002
  0.184607492663275E-001 -0.673092495457518E+003  0.194440136955632E-001  0.746737627920130E+001 -0.244082204210142E+003  0.166747523103752E+002 -0.135556900066729E+001  0.236053375770057E+001  0.509814628789349E+000  0.749088988417644E+002  0.692906453069405E+001  0.170531875160038E+002
  0.184607492663275E-001 -0.673247360209864E+003  0.193599319154822E-001  0.746737829491258E+001 -0.246794451075828E+003  0.169723496192662E+002 -0.158231290134927E+001  0.235897919138228E+001  0.511888371508811E+000  0.749018357993160E+002  0.698715118225521E+001  0.170482773439594E+002
  0.184607492663275E-001 -0.673328718188259E+003  0.176905681776039E-001  0.746737733202334E+001 -0.240201701911826E+003  0.160643202365341E+002 -0.181326240036287E+001  0.236272884344730E+001  0.507971193195906E+000  0.749884718908929E+002  0.680335985023396E+001  0.170462927999946E+002
  0.184607492663275E-001 -0.673548560115164E+003  0.184821540243262E-001  0.746737626025107E+001 -0.248785505106871E+003  0.173405743183930E+002 -0.137792238332588E+001  0.235784572142378E+001  0.508777017283611E+000  0.748966716041973E+002  0.667261861953632E+001  0.169643466978370E+002
  0.184607492663275E-001 -0.674744626533859E+003  0.176146989214565E-001  0.746737268660815E+001 -0.250615686595628E+003  0.177449624136441E+002 -0.105814966201740E+001  0.235680355548884E+001  0.500605855965565E+000  0.749802316672117E+002  0.692549509859982E+001  0.169988164923902E+002
